{"layers": [{"weights": [[2.5062644481658936, 1.15439772605896], [1.382454752922058, 1.4790993928909302], [-3.664473056793213, 1.9664387702941895], [1.3171288967132568, 1.5930770635604858], [0.09829985350370407, -0.08658108860254288], [1.0512876510620117, -1.0486549139022827], [-0.6672866940498352, -1.4095311164855957], [1.214213252067566, 1.4079868793487549], [0.1024908497929573, -0.002824766095727682], [1.9069223403930664, -1.4625816345214844]], "biases": [-2.899357557296753, -0.21451014280319214, -0.3982307016849518, -0.15426723659038544, -0.2265913188457489, 0.7030196189880371, 2.253863573074341, -0.1563037931919098, -0.6912328600883484, -1.4720475673675537], "activation": "relu"}, {"weights": [[-3.3509647846221924, 1.8916324377059937, 3.6282668113708496, 1.2926925420761108, -0.3006720244884491, 1.9304717779159546, -0.8691440224647522, 1.2107789516448975, 0.13533265888690948, -2.125854969024658], [0.31028836965560913, -0.32836294174194336, 2.4238779544830322, -0.20828428864479065, -0.16659429669380188, -0.4406559467315674, -0.008875387720763683, -0.18065281212329865, -0.09131304174661636, -0.6321579813957214], [2.95703125, -0.40856075286865234, -0.6373250484466553, -0.8016716837882996, 0.3149785101413727, 0.945774257183075, 1.34335196018219, -0.7215819358825684, 0.1925707459449768, 1.1930873394012451], [-3.1380908489227295, 1.2545928955078125, 2.915764570236206, 1.4190171957015991, -0.1772645115852356, 0.4684757590293884, -1.1818240880966187, 0.861598014831543, -0.23999103903770447, -0.22743375599384308], [3.5826449394226074, 0.11551366001367569, -0.873908281326294, -0.1591511368751526, 0.10383174568414688, 0.571556806564331, 2.0996437072753906, -0.06442012637853622, -0.2928623557090759, 1.3410367965698242]], "biases": [-1.6278254985809326, -0.48534876108169556, 0.2252109944820404, -0.1603531837463379, 1.0044792890548706], "activation": "relu"}, {"weights": [[-3.652614116668701, -1.3583486080169678, 1.4136534929275513, -1.265202522277832, 1.6787229776382446]], "biases": [0.4283834993839264], "activation": "linear"}]}